encog,BasicNetwork,java,3.3.0,1,1508734995562
[BASIC]
[BASIC:PARAMS]
[BASIC:NETWORK]
beginTraining=0
connectionLimit=0
contextTargetOffset=0,0,0,0
contextTargetSize=0,0,0,0
endTraining=3
hasContext=f
inputCount=105
layerCounts=5,5,18,106
layerFeedCounts=5,4,17,105
layerContextCount=0,0,0,0
layerIndex=0,5,10,28
output=0,0,0,0,0,0,0,0,0,1,0,0,0,0,0,0,0,0,0,0,0,0,0,0,0,0,0,1,0,0,0,0,0,0,0,0,0,0,0,0,0,0,0,0,0,0,0,0,0,0,0,0,0,0,0,0,0,0,0,0,0,0,0,0,0,0,0,0,0,0,0,0,0,0,0,0,0,0,0,0,0,0,0,0,0,0,0,0,0,0,0,0,0,0,0,0,0,0,0,0,0,0,0,0,0,0,0,0,0,0,0,0,0,0,0,0,0,0,0,0,0,0,0,0,0,0,0,0,0,0,0,0,0,1
outputCount=5
weightIndex=0,25,97,1899
weights=-1.8866206678,-2.1578561922,-3.1447226863,-3.6530964629,1.5553436635,-0.3001006691,-3.089192902,4.0873190471,-1.3792602346,-1.9894798376,-1.9842584598,-2.1219316321,-2.909950092,4.0820511547,-1.6065440165,-2.7999154924,4.1125717,1.8045282689,0.3979836297,-3.6167519364,4.978141002,0.8078706147,-1.2310606709,-2.5214701753,-2.5390508672,3.0265606404,-1.6965234246,-1.6141418803,1.5579474163,-0.3296716358,3.886729756,-0.7880642232,0.0812877994,0.2328891218,1.6530787342,-0.7738065543,-0.5459450535,-1.1376036817,-2.713414907,-0.5457308748,-1.5838497556,0.6539878644,-0.9276799114,0.9642767901,-1.8658717565,-1.5024395248,-0.7874195752,1.9629884831,-0.8649366794,0.1663362921,-2.4123307019,0.7578975865,-2.1422346437,1.338695264,-1.5292137807,0.95492209,-1.1665874408,1.6031294092,-3.7160315676,1.4681882636,0.944225999,0.0527501761,-0.6987209254,2.4492611684,0.0855382242,-1.690149792,1.221876652,-1.0386213039,0.9750226451,-1.4169535843,-1.9838584312,0.0479422542,-1.2024591941,3.4472349708,0.4984310478,0.8620655247,-3.0672748293,1.4885944458,-0.5038537877,-1.7474448819,-0.8206052028,-1.9412707195,-2.9047196492,-2.3736051973,-0.8521498357,0.773090558,1.0088947622,2.1492107533,0.0299941871,2.6572968104,-0.5170902815,3.2845120202,1.8248461023,-1.1465933113,-0.0755187698,-1.0006749873,-0.9210860453,0.5612841124,0.146064214,0.9580529216,-1.0244581605,0.9784069838,-0.9365734046,-0.0240959514,-0.4194204764,0.5563692603,-0.5604268785,-0.6861739745,-0.3855732385,-1.4612658892,1.5306565071,-0.8739292872,0.0590047635,0.7344073024,-1.0503456149,0.1931731139,1.5269034404,0.4484130626,-0.2356915005,-0.0819032589,0.5257042835,-0.019572045,0.7688590006,0.848666865,1.5100498346,0.0706859833,-0.830159567,-0.5996613719,-0.670483404,-0.0044667119,-0.3720931304,-0.4939470111,0.345658378,0.5658364075,-1.6943054738,0.7149277142,0.8830335467,-0.2269437428,-0.5659635578,-0.0396115245,0.2923135735,-0.7043162904,0.0313178055,0.2569609781,0.1584905097,0.1706773251,0.2285280814,0.3407472874,1.2697005414,-0.7405146092,-0.8126473348,-0.6731584172,-0.4264026028,-0.5773372555,0.0332601349,-0.8737201642,0.3886033969,0.3833774705,0.5214077212,0.6776874059,-0.9087258303,-0.1165512114,0.1196516467,0.4758565928,0.3967703181,-1.027273677,0.6234254574,0.1476721785,0.4625491542,-0.8152745388,0.6233207248,0.5195971649,0.8176688506,0.7217642199,0.7952895984,-0.857032867,0.1047811337,-0.9647147038,-0.9647165986,-1.0463815033,0.1565399137,0.2530158239,-0.1613839681,0.8288653803,-0.1801063242,-0.3848381112,-0.1335786489,0.7329626504,-0.8960833504,0.3515865566,0.7424650969,-0.0921497948,0.7005121629,0.8096087316,0.0911555266,-0.9528955284,0.5607665506,0.366436619,0.0217125989,0.716859266,2.209814673,0.6837318875,-0.4917280449,-0.0445337155,0.7651371176,0.4227194851,0.2344384705,0.6208479725,-0.4586937549,-0.3001314304,-0.1812078798,-0.0877473615,0.1244194999,-0.4458523319,-1.0850753281,0.9684669947,-0.3142022328,-0.3209690861,0.9053574501,0.4448184862,0.1979293695,0.1902445987,-1.4529844459,0.1759777597,-0.1757403681,0.1359635454,-0.827927376,0.256207865,0.3586506635,0.8046961449,0.2939279846,0.0247378978,-0.5644720725,-0.5628722202,2.1605663462,-0.4302787308,-0.0814936044,-0.2783000373,-0.9761231549,0.1799226569,-0.4657978958,-0.8765631029,-1.4801853635,1.1462016717,-0.7596020418,-0.1979466713,0.5850509263,0.1766941953,1.0217761903,0.249373177,-0.303824256,0.8011614911,0.2914634868,-0.8193760632,-0.919178773,0.6237774966,-0.3062063111,-0.7155670845,-0.5131623092,-0.6516712366,0.2467135416,-1.1527611374,0.0463574288,0.3667024998,0.8847538043,-0.7493328078,0.8065235487,-0.3931923383,0.1916142644,0.5759214831,-0.2341155561,-0.9326128122,0.5019424595,-0.1922027927,-0.7253817071,-0.6878891705,-0.0837527054,-0.6194823149,-0.4206077951,0.8962248176,0.279393173,-0.9083371499,0.4393983609,0.4352202842,-0.1849023349,-0.3907694739,0.8275793933,-1.2380743524,-0.0370149984,-0.4417390165,-0.9243055632,-0.6918148612,-0.4843395592,0.4000304105,-0.8141417917,0.3075755103,0.8116644916,-0.8801574504,0.283094029,0.3223737136,0.0014944051,-0.0851987323,0.5934234617,0.5130887202,-1.3520730135,0.2975289864,-0.2418905075,-0.7047809396,0.2802993771,-0.5266963698,0.017755703,0.6195862288,-0.136016372,0.1286773274,0.5079778527,-0.254060671,-0.9725363414,0.829638608,-0.2738705306,-0.2160391319,-0.9831291331,-1.553761518,-0.1053938472,0.6972306824,1.2434333418,0.0716614656,0.9241017174,-0.6578744272,-1.3015881786,-0.2739661096,-0.7363784486,0.4377952143,-1.1534704015,0.7330820654,-0.6935535348,0.0073771458,0.4752184581,0.9582339737,-0.0776233858,1.271931492,1.1206418803,-0.2927675452,1.7771707283,0.1943813578,0.406731587,-0.2498354333,-0.1435813045,-0.5311815672,-1.4370509659,-0.3448584444,-0.4711161081,0.8531259926,-0.2190427592,-0.4195796004,0.5257321061,-0.6567616534,1.0021312418,-0.4045456915,-0.2704688948,-0.3486536476,-0.1817095923,-0.2132684165,-0.7133055238,0.2780373523,-0.6834153447,-0.9581834044,0.974702794,0.1501743476,0.3582117096,-0.6966153671,0.1026938524,1.0401109219,-1.2195913164,0.6462695521,-0.359992385,-0.2457750535,0.0371715991,-0.7696447763,0.6080953501,1.1281534916,-0.1507227441,-0.2163558843,0.4485935408,-0.6339225728,-0.6515703008,0.7685189177,-1.1396537819,0.5133911134,-0.6869854031,0.3830739299,0.8004345683,0.1304790398,-0.3082529599,-0.1058462293,1.0224153188,0.9433167003,-0.2499343503,0.5495759267,0.6312005476,0.7319137885,-0.8684695511,-1.0889613269,-1.0954969642,1.1084847551,-0.3914005674,-0.6699902987,-0.7807570989,-0.4072641799,0.0906870501,-0.1374766932,-1.2862574817,0.4031719863,-0.6987574299,0.2626463197,-0.0331831393,0.6637125951,0.3688367517,0.1419512349,0.5623726827,-0.5442620809,0.5157883159,-0.9581094556,-1.5544829925,0.6328997041,0.3338439167,-0.5443894073,-0.5723981144,-2.5277793106,-0.5351547033,0.1167417209,-0.1753879706,-0.7552086159,0.42978419,-0.2206166901,1.5209210899,-0.3748362231,0.9597464184,0.5300000049,-1.2154299918,0.07266111,0.7914536048,0.2071852725,-0.4843102345,0.0630548247,-0.7606581835,-0.6140875951,1.2826991457,0.0129786576,0.6122364233,-0.7694322416,-0.704488765,-1.1168462587,-0.3561848625,0.3852374108,0.5291607317,-0.0636457174,-0.0284109502,0.630021359,-0.5060793807,-0.4244108895,0.2576976706,-0.2589753782,-0.0749570114,0.5164492511,-0.1026261049,0.5146110505,0.8237206971,0.3691567061,0.9470048431,-0.4013794612,-0.6855183496,-0.8344897701,-0.5390583727,-0.2877879522,0.9037115196,0.9420504475,-0.3761028882,0.2247159236,0.2560577596,0.1079067595,-0.4992578163,-0.6172673773,-0.488542319,-0.8395869014,0.3583144607,1.0123232788,-0.8913225163,-0.9135987132,-0.0935973368,-0.5845581674,0.7377911907,0.6153920359,0.4890114335,-0.5775246909,0.6653209295,-0.1433962105,-0.2158725399,0.1754685576,-0.043771109,-0.5275103903,0.7185599781,0.0503080514,-0.7153696511,0.0773218187,0.9055927247,0.2527733385,-0.9713729063,0.1142917289,-0.4038076297,0.0676701971,-0.2824156514,0.5157872701,-0.4001774128,-1.0005045095,-0.5359563223,-0.7921574271,0.6096316793,-0.9721778153,0.4062788768,0.012034277,0.7247482438,-0.4207695506,0.5455499216,-0.7296858132,0.5576789225,0.8806723597,0.6504583637,-0.5645260134,-1.1251329631,-0.5241726836,-0.7610294894,-0.5638179199,-0.3160516677,-0.8718586156,0.114328901,-0.1894991222,0.6597258593,0.5025293202,0.5355869766,-0.7147963025,0.1284057335,-1.369107866,-0.1567789073,-0.3526651724,-0.8194167644,-0.9817789807,0.2301929398,-0.8471509133,-0.7279416986,-0.4563873367,1.0906361647,0.3742955998,1.8174292985,-0.1953146433,-1.6651352343,-0.1128760527,0.3336268198,0.8169631385,-0.2273405062,-0.1052343818,0.6125983037,-0.8918618034,-0.2309446427,-1.1201030474,0.6075059519,0.4277794786,-0.7844942938,-0.0734870862,0.5633235391,-0.2375544187,-0.1172268373,-0.9398672009,0.3561804465,0.1008176312,0.3573171755,-0.6511208638,1.0235042683,0.9911129731,-1.1083084534,-0.3132253415,0.5426141268,-0.4142685137,-1.2125824132,0.22567371,-1.0940808142,0.6287451355,-0.3082294145,-0.1720868091,0.7618552556,-0.7614335625,-0.1608471387,-1.3067042324,0.5316708009,0.074467939,0.7072851512,0.4295650835,0.6916676396,0.5833519874,-0.0969782154,-0.5814529122,-1.0812751241,0.1850350345,0.3260942088,0.0309334952,0.1650924008,-0.6665458108,-0.6583009138,-0.2722822903,-0.3869802225,-0.5397162852,-0.2143980233,0.1854304008,1.2219856624,0.747984755,0.0834392162,0.7241402826,0.171128377,0.8167011587,-0.1806814076,-0.7336080692,-0.5341270275,-0.1720084764,-0.289830079,-0.4105208382,1.3117899766,-1.1157198428,0.2896688662,-0.6817363339,-1.5750469952,-0.6290106006,-0.921615696,-0.8360117521,0.346125783,0.861681245,-0.8242896548,-0.1107827315,-0.4001472644,0.0573098417,0.2969192451,-1.9585807692,1.2619398698,-0.4463139133,0.8960455706,0.2489686459,0.8837594418,0.182907852,1.929412728,0.2479808763,0.7692048993,-0.035829963,-0.7693224475,0.7221108656,0.0923367099,0.5891077645,0.4838987225,0.1264376146,-1.1064886134,0.6571816543,-1.1546640231,-0.5287459988,1.2496306023,-0.0532568846,0.0242930299,-0.468298367,-0.0704712463,-0.7694004953,1.4755093093,0.4765512762,0.6792940084,0.2196108085,-0.8577949814,0.5260971154,0.5522146693,-0.9192863669,0.0990009069,0.850504918,-0.2120645833,0.2767565718,0.1694209381,-0.4877175913,-0.3898981372,-0.7185565622,-0.8241654049,0.2719941482,0.5693178344,0.2520926168,-0.5974699539,-0.5829454018,-0.1276742,0.9214100728,0.4707958368,-0.0595086038,-0.091097768,-0.9920508382,-0.6290046482,0.7458895637,0.3534816138,-0.0716127986,0.1567343124,-1.8087791903,-0.7737402463,0.4605114221,1.2926814234,-0.7344627404,-0.1280538959,0.0805501328,-0.4797003699,0.3319794079,-0.705907871,-0.8240341234,-0.761716332,0.2482192812,0.2705292647,-0.8812754609,-0.6994318704,-0.2926540091,0.9380072788,-0.0165968944,-0.1692491599,0.6021280822,0.4501709698,0.2579522169,-0.8159942524,0.3709436873,-0.5652938606,-0.8325520991,1.1247185247,-1.0494526596,0.4107213426,-0.923039685,1.4820214066,-0.6411345765,-0.054280401,-0.5781436639,0.5133939502,-1.0321051585,0.8459156755,0.4627436837,0.8510398928,0.0744370615,-0.470488465,-0.5051101942,-0.5410125087,0.0643852302,0.1883211992,1.881600205,0.6789197725,-0.6872226162,-0.5331355472,-0.0257283176,-0.5089870811,0.5191069737,0.8988159934,-0.4940848848,-0.8987196094,0.5461610164,0.807674997,0.6188534488,0.2637428597,0.8118194663,0.5285074424,-0.7411596243,0.6981606286,0.6195387751,-0.2662078336,0.4557269645,-0.6507805737,-0.0149191371,0.007000454,0.4026678919,0.2348272524,0.011126622,0.8469116476,-0.7641358386,-0.6904100607,-0.0473265007,-0.8560104362,0.400715877,-0.1841292676,0.8685557287,-0.3329461142,0.4708390147,0.6097309603,0.2767795029,-0.4269266825,-0.1509157952,0.9667800539,0.6296968999,0.6395945621,0.1981510189,-0.4715147512,0.0855608534,-0.8617176269,-0.5196875557,-0.3557376337,0.272802903,0.0924382135,-1.0079915293,0.4503861107,-0.050250725,-0.9884080221,0.8444842094,-0.7128748659,-0.4075165258,0.5263300314,-0.439949155,0.7679151589,-0.1716720648,-0.2821437518,0.1024717809,0.7616678937,-0.1358423789,-0.1652277847,0.2279720172,-0.693977367,0.3927996901,-0.0299999881,0.483684045,-0.8531322303,-0.9099976935,0.2483298597,0.0595576605,-0.7471763271,-0.584005537,0.4150886854,-0.6461897625,0.4808205839,0.4914456756,0.68810597,0.5671949528,0.8571482868,-0.7867815195,0.2813791897,0.2035728152,-0.436026502,0.7315627208,-1.1580136563,-0.2395273,-1.0404829414,0.8390147183,0.0561254662,0.4882597356,-0.802423869,0.5660250696,-0.8015977457,-0.9770756163,0.0532613001,-0.7552162719,-0.8190511239,-0.645033603,-0.0402134735,1.6653072506,-1.0941510073,1.1522821731,-0.5199261261,-0.67575472,0.9549592691,0.7039455404,-0.6023918008,-0.3649678375,-0.134621337,0.3856914779,0.4406400707,-0.5854098193,-0.9301703017,-0.1341644706,-0.180454813,1.1199673179,-0.7426633328,1.1445977911,-0.742506496,-0.0599508643,0.1348388441,0.2367504139,-0.4913389323,-0.9004828901,-0.1209993656,0.1598874447,-0.2322070013,-0.2884576047,-0.3566678484,0.4343593921,-0.5598228177,-0.0366839053,0.9774072331,-0.1372159159,0.6888329735,-0.5389308704,-0.4144788641,1.0275606373,-0.4961951551,-0.3342376062,0.528580242,-0.632108455,0.397570659,-0.3715580955,0.8928365859,-0.7898254878,0.4205162119,-0.5842577003,0.819272636,0.9652729015,0.775424512,0.2340211777,0.6081482339,-0.7003758565,-0.4291794647,-0.4145978626,0.3055502417,0.2776988034,0.2656968111,-1.5797446976,-0.5937023397,-0.1235063265,-0.054007846,0.0683301649,-0.1106446266,-0.4267741993,-0.7561718622,0.7004020308,0.5700603017,-1.1954968344,-0.5386053034,0.1093721549,0.8049245522,-0.465893142,0.6934087014,0.3819631788,0.258535334,0.565305873,0.2902606015,-0.0733700141,-0.8897902905,0.3820444777,0.9413800504,0.1794302555,-0.1962110705,0.6892951098,-0.7343449719,-0.6843077952,-0.0424659126,-1.1783302666,-0.7361644324,0.336872463,-0.3014930424,-0.5273071916,0.606722595,0.3540355245,-0.0796526472,-0.2465141842,0.2569819496,0.6577897688,0.5305854166,0.5817917663,-0.7723037615,0.0822523189,0.1654152028,1.8603081364,0.1956956316,-0.6081400806,0.7649775496,-0.3924027675,0.1858050752,-0.65801314,-0.6908893434,-1.2621916823,-0.3844590062,0.0300168072,0.3962552938,0.260530806,-0.3721138532,0.8973126766,0.8364068375,0.2983946427,-0.5940142058,-0.5851796317,-1.2431193272,0.8160379273,-1.5343865907,-0.1027730337,0.9472495178,-0.6063747819,0.2996832178,0.8249918688,0.1855022211,0.1094421038,0.7056536545,-0.0445378395,0.7707154465,0.6426107443,-0.7540729328,0.0445479938,0.4592891994,0.5697631963,0.7685891237,0.9087835182,-0.4577213235,-0.1776077338,0.0734933109,0.6806293619,-0.8725756578,0.5935729217,0.0483420086,0.7252560119,0.1965496068,-0.1039638545,-0.3280446024,0.6451021677,-0.170595642,-0.3623407605,0.7080969315,-0.6809967737,0.3114866862,0.3713883613,0.6836085953,-0.0994474619,-0.7927890626,0.1179901141,-0.4102191385,-0.6745726869,1.0174584112,0.6820376884,-0.5525106346,0.029684751,0.4708113221,-0.1086681363,-0.0469328155,0.7779905035,0.4123942756,0.1376435974,-1.1148509486,0.6605360786,0.1330094873,-0.7832701804,-0.5513529858,0.3556866714,0.7115090737,0.2862014324,0.2223151148,0.0038706013,0.2173165422,0.1604135552,-0.1041165224,-0.4609163452,0.2292331001,0.2907444331,0.8479287279,0.6638537179,0.499183535,0.0476692916,-0.2964723957,-1.1745808751,-0.7943088325,-0.7921443986,-0.7715584942,-0.182577585,0.1519796692,0.3954164817,0.3862077214,1.156004046,-0.8738065909,1.0637970519,-0.5874034382,1.9390038792,0.7335959334,-0.3073785914,-0.7209680802,0.2352872307,0.7349643838,0.3137076285,0.6338597317,-0.5886500795,0.552207643,0.7959661134,0.3854529772,-0.3468155296,0.8684036486,0.9228983755,0.4505914395,-0.6961107957,-0.5098255889,0.5939723369,0.9798148063,-0.1152565229,-0.5307609007,0.2085059067,0.7508873523,-1.3035252694,-0.4759546674,0.7516471071,1.2378404398,-0.3424463552,-0.517661542,0.7548929979,-0.4883113354,-0.7987024187,-0.5510430209,0.8884870556,0.5045708777,-0.6411566144,-0.3064293051,0.7045418023,-0.8933024939,0.442319315,1.0187643825,0.605373084,0.2681834532,-0.1420833239,0.8565610834,-0.4435499891,0.8206470818,0.0043568602,0.1073230902,-0.9183187299,0.0053978929,0.5502598909,0.8387746007,-0.5124363402,0.1352448634,-0.6292432545,0.612394436,0.9157182154,-0.2674150205,-2.299843534,-0.7655151794,-0.4622227144,1.0683025049,-0.0001783484,-0.4579044718,-1.0658015937,-0.248065794,0.3396979436,0.3899214361,-0.7212985866,-0.0585950204,-0.9777467965,-0.0335739702,0.3563435601,-0.7648195907,-0.7203165981,0.1416689216,0.8658155913,0.1900677158,-0.1567104483,-0.4270634834,-0.1762626829,0.4284295641,-0.2660943596,0.3361991158,0.4514273865,0.5749329805,-0.7224405213,0.3775433092,-0.4093571539,0.7529770691,-0.5695276468,0.3277458734,-0.7017576094,0.6250444925,-1.0785719183,-0.5016877638,-0.3839307444,-0.0736525096,0.3610015164,0.2093184286,0.0700468868,0.2657155323,-0.2445912971,0.7289152151,1.917275954,-0.7757467085,0.5972859448,-1.0281646118,0.6619159393,0.6284140271,-0.3151627514,-0.5252270712,-0.2685159313,-0.1236221103,0.3730590877,1.1984442057,-0.4365605432,-0.0072618482,0.5705808646,-0.8688933904,0.4753992139,0.0895442284,-0.5835823519,-2.5563947449,-0.1654335293,0.1880011986,0.8249057846,-0.4927006883,1.1360242791,0.0549965746,0.0787153571,-0.8573072896,1.1614897934,-0.0199765989,-0.2691896936,0.3465307317,-1.014627243,0.3521390181,0.12009015,0.714068657,-0.8839390029,-0.5380943131,0.2019906282,0.6325571255,-0.3944576511,0.7352215834,0.2483801161,0.9154613636,0.6797150674,0.5974077045,0.2982029123,-0.7783557592,0.6637221926,-0.0330978175,0.5795545602,-0.349071676,0.4496969355,-0.0645185035,0.6100406161,0.8177936878,-0.5087150195,0.0204643957,0.060670169,0.5258356555,1.0373339254,0.4770448763,0.160853858,-0.6132011601,0.1111950354,-0.5304317387,1.1909595414,0.6057100261,-0.9225089285,-0.9613736288,0.4592674687,-0.7919362289,-0.4721130928,-0.59261204,0.6057105562,0.0965926171,1.0041759003,-0.6016602796,-0.8669469811,-0.5010632976,0.1844888666,-1.0488449822,0.7025599707,-0.8918288534,0.0959217522,-0.2365380359,0.033884723,-0.5726412027,0.4143212475,0.3210322374,-0.0145449854,0.2875513173,-0.0539641479,0.2243345372,0.6405508397,0.220231264,-0.6115710126,0.326873987,0.6464845029,-0.5651805581,-0.7749273441,1.2286267255,1.025420227,0.0445723097,0.1688232176,-0.9359213899,1.2587889476,-0.1812133393,0.0286882623,-0.1822050144,0.8808730966,0.6162016777,0.6791681209,-0.6138516182,0.8188773252,-0.2042523202,-0.2515273164,0.2517682676,0.0095033781,0.5097056566,0.074921615,0.865726804,-0.8668344844,0.2907208181,0.0385500578,0.9325265336,-0.2771205832,0.6493446454,-0.0382042436,-0.9537845101,0.5116747388,-0.0629046786,-0.4721986315,-0.4868568447,0.9186308149,0.767222863,-0.1563595603,-0.87534174,-0.2186160037,-0.5621432997,0.151388881,-0.0663644682,-0.4140495296,0.4097811666,-0.5815058864,0.5230447687,-0.6528264983,0.1388614571,-0.7781845605,0.8425242435,0.5225637191,0.8252096735,-0.3027661447,0.2271249216,-0.2865146145,0.8427669838,-0.3947843813,-0.4679653048,-0.4407041484,-0.2244231572,0.5616460675,0.2783865374,-0.5821926649,0.7857014602,0.6602689072,-0.9323764371,-1.6779437327,-0.9432755512,-0.2374568891,0.8907741542,0.9683655154,0.4183931229,-1.2962703032,-0.7488905736,0.0059637219,-0.867283444,0.1595856132,-0.9638113755,-1.1437928757,0.6655350503,0.7516916465,0.5888091174,-0.7815826252,0.9961471856,-0.5204005181,0.1862891116,0.9806884577,-0.5740318511,0.5287894539,0.855250702,-0.5863613698,-0.3687734027,-0.8176536318,-0.8050561848,-0.3238208305,-0.4370610518,0.316785091,0.378491632,0.6568775412,0.0434126952,-0.4979905853,0.6435883284,0.4952381542,0.7089873958,0.6678440475,-1.2230445459,0.9339563309,0.7588446999,-1.630636946,0.1233358612,0.0025841002,-1.0207195112,1.5424428383,-1.3061964017,1.0231559985,0.1993668147,0.0143871947,0.6731447184,-0.231266188,-2.0950223462,0.2502588597,-0.6727663727,-0.2755452599,-0.7547200801,0.2591666597,-0.5252514999,0.8827617415,-0.6863726933,0.8206975871,-0.6407222982,0.6343463114,-3.324896813,-0.2584279907,0.3171026664,-0.6227843307,-0.4836171928,1.1509978303,-0.4389721629,0.4733983535,-0.0961431947,0.3327487167,-0.9227460615,-0.2150481647,0.630205905,0.7835217684,0.1608473486,-0.7214688858,1.0914746767,0.8280467802,-0.6301360438,0.0328609332,0.1219026766,0.4485554028,0.5167474778,-0.0488540534,-0.8406045497,0.1879325518,-0.1161681291,-0.589304141,0.5360735576,-0.5597654313,0.670170511,-0.6309662917,0.6408730484,0.329561757,0.195110824,-1.4360929881,0.7190987918,0.8757357173,-0.8409743548,0.8611595836,0.2964310847,2.450979186,0.9100532043,-1.0690508021,0.2896902382,0.4285319291,0.3164756871,-0.2309301385,0.3666609414,0.6702281872,-0.835975917,-0.2190624484,-0.7881407459,0.3382852429,0.1691602744,-0.4462861264,-0.4432128808,-0.4314471327,0.7687951635,0.3442043397,-0.2633586338,-1.0226082183,-1.3304310239,0.1895331123,0.8132339452,-0.5012822091,0.9169924579,0.4047298898,0.8242108033,-0.4502734061,-0.4737426153,0.3737818887,-1.0639565357,-0.3067533129,0.457901877,0.3923644474,0.0384199003,0.5921480108,0.0703834327,0.9524073179,0.8378114922,0.597024501,1.2349576867,0.5500311658,-0.3122632562,-0.0911417788,0.558725349,2.2633714352,-1.1029746992,-0.2604251667,0.2193052706,0.7035787698,0.1852548443,0.4461904503,-1.1710447285,0.3473331007,-0.7425657312,-0.9037209912,-0.1881188862,0.6418403763,-0.076773689,-0.3552002449,-0.1212311461,0.8764151132,0.6322996673,-0.0486536115,-0.4540603621,1.2006245059,0.5666062398,-0.6825557953,-0.1807648002,0.407624966,0.5819601914,0.2215843969,-0.3794093449,0.7971374276,0.2643270547,0.5356912388,-0.6333488376,0.4772772362,0.2051208558,-0.7106490108,0.0724832759,0.9451291907,-0.2130879728,-0.3930799443,-0.1798893413,0.5386366765,-0.7333258726,0.8242973363,-0.5311680426,0.0414856978,-0.0308625765,0.0040575366,-1.1483114945,-0.4344960342,-0.4201905746,0.1782454166,0.0085175022,0.9405242547,-0.4504001773,0.1398546755,0.6531726945,-0.6993287968,-0.9239653618,-0.1078631104,-0.0911029158,0.9935547916,0.0721469168,-0.0286321285,-0.7243392201,-0.0146508993,-0.2537642975,-0.2662949532,-0.2655865993,-0.576954113,0.0584646372,-0.4738188406,-0.1853745286,0.3021210387,0.6116700341,-0.7205522672,-0.602030657,0.0158343624,-1.0200273553,-0.1291826479,-0.2260154461,0.0126335502,-1.3406370331,0.8122435567,0.7881844261,0.4702247156,-0.1626477283,0.0320375193,-0.4125948893,0.5808167639,-1.1650595766,-0.2711718997,-1.9698393512,-0.3042232082,0.3291999124,0.1636376313,0.015181023,-0.3967017175,-0.0775349743,-0.972636453,-0.4288214825,-0.9198575747,-0.3239389713,-0.8965026391,0.1637887437,-1.0098489914,-0.4087101851,-1.5478308541,-0.7555633311,0.0575793729,-0.564444325,0.4100567841,-0.0533410008,-0.8350671385,-0.3914947706,-0.2556876766,-0.3016008883,0.3934454726,-0.6066975058,0.8048228459,-0.3487434313,-0.8979064851,0.8139091324,0.2730910687,-0.4550277486,-0.2563342857,0.1142463727,0.5867306266,-0.5923599728,0.8450892574,-0.7992113489,0.3234360999,0.3327405793,-0.0291981792,-0.1829521905,-0.9527564438,0.0482555656,-0.7260558816,-0.9953314243,0.7948476804,-0.0028405982,0.8811564419,-0.7782007132,0.7154169236,0.7399302929,-0.7528532883,-0.0574563958,0.5960820135,0.6486428797,-0.4520161518,0.0495099103,0.1887969162,0.1707978628,0.8401927974,-0.1287812358,0.1595739796,0.4531088846,0.3013420457,0.5570615283,0.0299320091,-0.6551117595,-1.0726730464,-0.6120098643,0.6158685093,-0.8825114691,0.5180896731,0.6983094375,1.3704302983,-0.2741119722,-0.5876786297,0.7579859846,-0.0908755421,-0.4506218145,0.8526863738,-0.8741630417,-0.1930041973,0.8932058529,-0.1792364211,-0.3785625113,-0.2781564033,-0.5777403506,0.877867518,0.3278140681,0.9020740329,0.7727437509,-0.6387932028,0.0606566907,0.1201981959,0.611115151,-0.8512119223,-0.8410631232,-0.6158077389,0.0733104717,-0.8522909617,0.1111414558,-0.3770694931,0.3901707426,-0.2799576121,0.5451294474,0.036021306,0.8240119422,-0.2064191326,-0.1737004485,-0.0590786697,-0.3881888448,0.6971429687,0.1721924264,-0.9595370575,0.9769384316,0.1934988925,-0.1743380906,0.8251226142,0.7687984206,2.1296010443,-1.2651338111,0.3565182656,0.2816799451,-0.4259930747,0.9905078415,0.71010474,-1.2807230272,0.2108262754,0.346848442,-0.330159411,1.2890928365,0.4914489531,0.1833039327,0.1374644693,0.3334834147,0.2650272608,-0.8875216665,-0.6864991967,3.3139596308,-0.0132453488,-0.0319628201,-0.8871354727,-0.8220701585,-0.7438070908,0.5604058955,0.718089072,-0.5645400601,-0.0162630927,0.0647101375,-0.7115227176,0.1274477256,0.1829385609,-0.2487318397,0.4730812908,0.5568481302,0.0269314396,0.8149665642,-0.6627844162,-0.7802112128,-0.6874217136,0.8628042098,-0.3008987051,0.7250488294,0.2940295187,-0.8572858769,-0.1428980757,-0.6088654582,0.8834294379,-0.3268201667,-0.6570094109,1.1768852955,0.2519118022,1.3749416429,-0.2991247169,-0.3376740266,-0.164663066,-0.0970949277,0.8466862352,-0.4767523486,-2.7262149305,-0.1401448057,-0.137247253,0.4355644317,0.7420725664,-0.7352984024,-0.4308377896,-0.5080122751,-0.4346017306,0.4011038636,0.7605548833,-0.6711017923,-0.1382388461,0.9851053574,1.5105106295,0.7828473676,-0.2110500061,0.1053524385,-0.6631385642,0.230829178,0.3885886177,-0.5765923597,0.7439570839,-0.5130001634,0.4568532883,0.9652637793,0.2003479209,0.2890412409,-0.9795961323,0.1266873564,0.4909911565,-0.4356881013,-0.3227530247,-0.6636761272,-0.0585003569,0.6552034734,-0.2911247683,-0.1982196975,-0.5564971136,-0.7318551516,-0.4058550293,-1.4419561249,-1.0583411412,-0.8439069745,-1.1962558838,0.0278773481,-1.4597668283,0.5280295289,-0.4188585364,1.0204724678,0.9717941582,-0.5402082299,-0.5907141531,0.3637957903,0.4636579623,0.9674686347,-0.9287260458,-0.3242884488,0.6891139002,0.9263350194,-0.6773366626,-0.0859296122,0.3072858953,-0.2379305788,0.095707572,0.1287037018,-0.0677050219,1.0296670858,-0.557432262,-0.1684941795,0.12287297,-1.675422197,-1.0520990449,0.3662848045,-0.4942418046,-1.1206121391,0.6795878236,0.4572202662,-0.2416874647,0.0624161939,0.8594245206,0.1653107264,-0.2903941727,0.3539140736,-0.6027146645,0.9645709269,0.4939557545,-1.041409899,-0.1926265126,-0.1250322192,-0.0394530004,-0.7162926972,0.7221329261,-0.6372997986,0.5931676889,-0.2569901294,0.4759784249,0.0590978894,-0.1943349087,0.5761165154,-1.1563874644,0.7408718409,0.1754260004,0.826114681,0.4485821609,0.2687322151,1.1185079861,-0.4611206543,-0.4845304322,-0.2992139815,-0.0544471672,0.859090366,1.0798908656,0.0692989898,0.2493877888,-0.1240559638,-0.4742645129,0.4257684813,-0.1911637951,0.8550111326,-0.1484668399,-0.8230024286,0.1486955064,-0.5372201214,-0.8648873034,0.9279493172,0.8541434019,-0.1908073227,0.1282369453,0.7067320419,-0.6280236868,0.8428406416,-0.2067886097,-0.6405529137,-0.9038430001,-0.0514511846,-0.0448721841,1.1565535295,0.7928228826,0.3333428017
biasActivation=0,1,1,1
[BASIC:ACTIVATION]
"org.encog.engine.network.activation.ActivationSigmoid"
"org.encog.engine.network.activation.ActivationSigmoid"
"org.encog.engine.network.activation.ActivationSigmoid"
"org.encog.engine.network.activation.ActivationLinear"
